<?xml version="1.0"?>
<opencv_storage>
<!-- Created using Computer Vision System Toolbox(tm) for MATLAB(R) -->
<!-- Version 8.1.0.604 (R2013a) -->
<!-- Compatible with OpenCV 2.4 -->
<cascade>
  <stageType>BOOST</stageType>
  <featureType>HOG</featureType>
  <height>32</height>
  <width>65</width>
  <stageParams>
    <boostType>GAB</boostType>
    <minHitRate>9.9500000476837158e-01</minHitRate>
    <maxFalseAlarm>2.0000000298023224e-01</maxFalseAlarm>
    <weightTrimRate>9.4999999999999996e-01</weightTrimRate>
    <maxDepth>1</maxDepth>
    <maxWeakCount>100</maxWeakCount></stageParams>
  <featureParams>
    <maxCatCount>0</maxCatCount>
    <featSize>36</featSize></featureParams>
  <stageNum>6</stageNum>
  <stages>
    <!-- stage 0 -->
    <_>
      <maxWeakCount>8</maxWeakCount>
      <stageThreshold>-1.7301292419433594e+00</stageThreshold>
      <weakClassifiers>
        <_>
          <internalNodes>
            0 -1 122 4.4762670993804932e-02</internalNodes>
          <leafValues>
            -8.2217246294021606e-01 7.0208728313446045e-01</leafValues></_>
        <_>
          <internalNodes>
            0 -1 138 3.2456029206514359e-02</internalNodes>
          <leafValues>
            -8.7373548746109009e-01 5.3202682733535767e-01</leafValues></_>
        <_>
          <internalNodes>
            0 -1 123 2.4505866691470146e-02</internalNodes>
          <leafValues>
            -8.2991558313369751e-01 3.5950669646263123e-01</leafValues></_>
        <_>
          <internalNodes>
            0 -1 144 1.1843508109450340e-02</internalNodes>
          <leafValues>
            -7.0550119876861572e-01 3.8082408905029297e-01</leafValues></_>
        <_>
          <internalNodes>
            0 -1 153 2.4547334760427475e-02</internalNodes>
          <leafValues>
            -7.1846711635589600e-01 3.6086851358413696e-01</leafValues></_>
        <_>
          <internalNodes>
            0 -1 5 2.8748225420713425e-02</internalNodes>
          <leafValues>
            -4.9644181132316589e-01 4.1569265723228455e-01</leafValues></_>
        <_>
          <internalNodes>
            0 -1 16 6.8735815584659576e-03</internalNodes>
          <leafValues>
            -7.5926911830902100e-01 2.3304712772369385e-01</leafValues></_>
        <_>
          <internalNodes>
            0 -1 92 6.6261133179068565e-03</internalNodes>
          <leafValues>
            -6.4858579635620117e-01 2.1429936587810516e-01</leafValues></_></weakClassifiers></_>
    <!-- stage 1 -->
    <_>
      <maxWeakCount>13</maxWeakCount>
      <stageThreshold>-1.8497513532638550e+00</stageThreshold>
      <weakClassifiers>
        <_>
          <internalNodes>
            0 -1 116 4.3610662221908569e-02</internalNodes>
          <leafValues>
            -8.2216078042984009e-01 6.1738353967666626e-01</leafValues></_>
        <_>
          <internalNodes>
            0 -1 112 5.5633792653679848e-03</internalNodes>
          <leafValues>
            4.8984098434448242e-01 -6.7369985580444336e-01</leafValues></_>
        <_>
          <internalNodes>
            0 -1 75 3.1443387269973755e-02</internalNodes>
          <leafValues>
            -5.5568015575408936e-01 4.6552562713623047e-01</leafValues></_>
        <_>
          <internalNodes>
            0 -1 95 2.8032993897795677e-02</internalNodes>
          <leafValues>
            -7.0636439323425293e-01 3.4767356514930725e-01</leafValues></_>
        <_>
          <internalNodes>
            0 -1 148 1.3827256858348846e-02</internalNodes>
          <leafValues>
            3.9258652925491333e-01 -5.1263529062271118e-01</leafValues></_>
        <_>
          <internalNodes>
            0 -1 181 1.5021946281194687e-02</internalNodes>
          <leafValues>
            -7.0081418752670288e-01 2.7810522913932800e-01</leafValues></_>
        <_>
          <internalNodes>
            0 -1 159 3.2598804682493210e-02</internalNodes>
          <leafValues>
            -5.1160973310470581e-01 3.9969778060913086e-01</leafValues></_>
        <_>
          <internalNodes>
            0 -1 169 4.5787710696458817e-02</internalNodes>
          <leafValues>
            -6.6521185636520386e-01 2.1883948147296906e-01</leafValues></_>
        <_>
          <internalNodes>
            0 -1 110 1.7894309014081955e-02</internalNodes>
          <leafValues>
            2.2143666446208954e-01 -6.1002779006958008e-01</leafValues></_>
        <_>
          <internalNodes>
            0 -1 162 7.8837228938937187e-03</internalNodes>
          <leafValues>
            -6.3978278636932373e-01 2.1836316585540771e-01</leafValues></_>
        <_>
          <internalNodes>
            0 -1 125 1.9473051652312279e-02</internalNodes>
          <leafValues>
            -6.8853873014450073e-01 1.5127602219581604e-01</leafValues></_>
        <_>
          <internalNodes>
            0 -1 89 7.6092481613159180e-02</internalNodes>
          <leafValues>
            1.0858945548534393e-01 -7.9163181781768799e-01</leafValues></_>
        <_>
          <internalNodes>
            0 -1 37 6.2359683215618134e-02</internalNodes>
          <leafValues>
            -4.5540356636047363e-01 2.6604914665222168e-01</leafValues></_></weakClassifiers></_>
    <!-- stage 2 -->
    <_>
      <maxWeakCount>24</maxWeakCount>
      <stageThreshold>-1.8263550996780396e+00</stageThreshold>
      <weakClassifiers>
        <_>
          <internalNodes>
            0 -1 127 4.3782509863376617e-02</internalNodes>
          <leafValues>
            -7.8008008003234863e-01 4.8237317800521851e-01</leafValues></_>
        <_>
          <internalNodes>
            0 -1 96 3.4390650689601898e-02</internalNodes>
          <leafValues>
            -6.9602584838867188e-01 3.1170699000358582e-01</leafValues></_>
        <_>
          <internalNodes>
            0 -1 59 4.7972559928894043e-02</internalNodes>
          <leafValues>
            -6.5441113710403442e-01 3.2521191239356995e-01</leafValues></_>
        <_>
          <internalNodes>
            0 -1 163 2.1183118224143982e-02</internalNodes>
          <leafValues>
            -5.4014456272125244e-01 3.5730949044227600e-01</leafValues></_>
        <_>
          <internalNodes>
            0 -1 13 1.7402056604623795e-02</internalNodes>
          <leafValues>
            -6.4418625831604004e-01 2.5830107927322388e-01</leafValues></_>
        <_>
          <internalNodes>
            0 -1 164 2.1594967693090439e-02</internalNodes>
          <leafValues>
            -4.5874565839767456e-01 2.2335599362850189e-01</leafValues></_>
        <_>
          <internalNodes>
            0 -1 98 7.2474822402000427e-02</internalNodes>
          <leafValues>
            -3.1012573838233948e-01 4.6761879324913025e-01</leafValues></_>
        <_>
          <internalNodes>
            0 -1 157 2.8421269729733467e-02</internalNodes>
          <leafValues>
            -5.9228819608688354e-01 1.7851427197456360e-01</leafValues></_>
        <_>
          <internalNodes>
            0 -1 45 2.0795740187168121e-02</internalNodes>
          <leafValues>
            4.4858118891716003e-01 -2.9005634784698486e-01</leafValues></_>
        <_>
          <internalNodes>
            0 -1 2 7.6564617455005646e-02</internalNodes>
          <leafValues>
            1.6675701737403870e-01 -5.4867643117904663e-01</leafValues></_>
        <_>
          <internalNodes>
            0 -1 77 1.4973348006606102e-02</internalNodes>
          <leafValues>
            -7.2458243370056152e-01 1.1905260384082794e-01</leafValues></_>
        <_>
          <internalNodes>
            0 -1 83 2.0501498132944107e-02</internalNodes>
          <leafValues>
            1.7988955974578857e-01 -4.7626212239265442e-01</leafValues></_>
        <_>
          <internalNodes>
            0 -1 144 6.4922710880637169e-03</internalNodes>
          <leafValues>
            -7.9276835918426514e-01 1.1076515167951584e-01</leafValues></_>
        <_>
          <internalNodes>
            0 -1 3 4.6629045158624649e-02</internalNodes>
          <leafValues>
            -2.5658294558525085e-01 4.6867692470550537e-01</leafValues></_>
        <_>
          <internalNodes>
            0 -1 97 1.7318671569228172e-02</internalNodes>
          <leafValues>
            2.1872666478157043e-01 -5.0223439931869507e-01</leafValues></_>
        <_>
          <internalNodes>
            0 -1 170 1.3276285491883755e-02</internalNodes>
          <leafValues>
            -6.1246979236602783e-01 1.4098405838012695e-01</leafValues></_>
        <_>
          <internalNodes>
            0 -1 119 1.5815809369087219e-02</internalNodes>
          <leafValues>
            -7.0036894083023071e-01 7.6654464006423950e-02</leafValues></_>
        <_>
          <internalNodes>
            0 -1 109 3.6323517560958862e-02</internalNodes>
          <leafValues>
            -2.3541341722011566e-01 3.3000007271766663e-01</leafValues></_>
        <_>
          <internalNodes>
            0 -1 81 1.3402763009071350e-01</internalNodes>
          <leafValues>
            -1.1477537453174591e-01 6.5535098314285278e-01</leafValues></_>
        <_>
          <internalNodes>
            0 -1 58 7.5076068751513958e-03</internalNodes>
          <leafValues>
            -4.9212095141410828e-01 1.3498634099960327e-01</leafValues></_>
        <_>
          <internalNodes>
            0 -1 105 2.7063366025686264e-02</internalNodes>
          <leafValues>
            -5.7395911216735840e-01 1.2274982035160065e-01</leafValues></_>
        <_>
          <internalNodes>
            0 -1 91 4.1182879358530045e-03</internalNodes>
          <leafValues>
            -5.0645864009857178e-01 1.2655018270015717e-01</leafValues></_>
        <_>
          <internalNodes>
            0 -1 27 4.1729621589183807e-03</internalNodes>
          <leafValues>
            4.0602567791938782e-01 -2.0296753942966461e-01</leafValues></_>
        <_>
          <internalNodes>
            0 -1 39 3.1014367938041687e-02</internalNodes>
          <leafValues>
            -6.1658740043640137e-01 1.0129773616790771e-01</leafValues></_></weakClassifiers></_>
    <!-- stage 3 -->
    <_>
      <maxWeakCount>43</maxWeakCount>
      <stageThreshold>-1.7476636171340942e+00</stageThreshold>
      <weakClassifiers>
        <_>
          <internalNodes>
            0 -1 116 5.2426651120185852e-02</internalNodes>
          <leafValues>
            -7.6089602708816528e-01 3.7875100970268250e-01</leafValues></_>
        <_>
          <internalNodes>
            0 -1 67 5.8320447802543640e-02</internalNodes>
          <leafValues>
            -6.6360634565353394e-01 3.1742903590202332e-01</leafValues></_>
        <_>
          <internalNodes>
            0 -1 120 2.1792529150843620e-02</internalNodes>
          <leafValues>
            -5.0844323635101318e-01 4.0072321891784668e-01</leafValues></_>
        <_>
          <internalNodes>
            0 -1 152 1.5578914433717728e-02</internalNodes>
          <leafValues>
            -5.0374573469161987e-01 3.1892558932304382e-01</leafValues></_>
        <_>
          <internalNodes>
            0 -1 176 1.9418887794017792e-02</internalNodes>
          <leafValues>
            -6.5434300899505615e-01 2.2462730109691620e-01</leafValues></_>
        <_>
          <internalNodes>
            0 -1 133 2.5434330105781555e-02</internalNodes>
          <leafValues>
            -6.3399446010589600e-01 1.5527784824371338e-01</leafValues></_>
        <_>
          <internalNodes>
            0 -1 11 2.2019460797309875e-02</internalNodes>
          <leafValues>
            -5.0971370935440063e-01 1.4003391563892365e-01</leafValues></_>
        <_>
          <internalNodes>
            0 -1 5 1.8528977409005165e-02</internalNodes>
          <leafValues>
            -4.8057243227958679e-01 1.5356433391571045e-01</leafValues></_>
        <_>
          <internalNodes>
            0 -1 23 1.3735814951360226e-02</internalNodes>
          <leafValues>
            -6.2089490890502930e-01 1.1510387808084488e-01</leafValues></_>
        <_>
          <internalNodes>
            0 -1 134 1.9681166857481003e-02</internalNodes>
          <leafValues>
            -2.9559460282325745e-01 2.5521907210350037e-01</leafValues></_>
        <_>
          <internalNodes>
            0 -1 12 2.0927615463733673e-02</internalNodes>
          <leafValues>
            -3.9861223101615906e-01 1.4770695567131042e-01</leafValues></_>
        <_>
          <internalNodes>
            0 -1 146 1.0030632838606834e-02</internalNodes>
          <leafValues>
            -6.6919803619384766e-01 5.9164170175790787e-02</leafValues></_>
        <_>
          <internalNodes>
            0 -1 76 1.0923426598310471e-02</internalNodes>
          <leafValues>
            2.9668346047401428e-01 -2.1426488459110260e-01</leafValues></_>
        <_>
          <internalNodes>
            0 -1 69 2.9263166710734367e-02</internalNodes>
          <leafValues>
            -2.1869684755802155e-01 2.6467180252075195e-01</leafValues></_>
        <_>
          <internalNodes>
            0 -1 177 6.3590347766876221e-02</internalNodes>
          <leafValues>
            5.8128364384174347e-02 -6.5754079818725586e-01</leafValues></_>
        <_>
          <internalNodes>
            0 -1 175 2.6617150753736496e-02</internalNodes>
          <leafValues>
            6.8637691438198090e-02 -7.0019942522048950e-01</leafValues></_>
        <_>
          <internalNodes>
            0 -1 90 5.9500327333807945e-03</internalNodes>
          <leafValues>
            -5.2239280939102173e-01 8.0870158970355988e-02</leafValues></_>
        <_>
          <internalNodes>
            0 -1 32 1.1631561443209648e-02</internalNodes>
          <leafValues>
            1.1420107632875443e-01 -4.3449136614799500e-01</leafValues></_>
        <_>
          <internalNodes>
            0 -1 41 2.3642936721444130e-03</internalNodes>
          <leafValues>
            -3.3320835232734680e-01 1.3358485698699951e-01</leafValues></_>
        <_>
          <internalNodes>
            0 -1 124 1.4396807551383972e-01</internalNodes>
          <leafValues>
            -1.3802939653396606e-01 4.2889413237571716e-01</leafValues></_>
        <_>
          <internalNodes>
            0 -1 114 9.2087462544441223e-03</internalNodes>
          <leafValues>
            -2.7196496725082397e-01 1.9749426841735840e-01</leafValues></_>
        <_>
          <internalNodes>
            0 -1 146 2.4184174835681915e-02</internalNodes>
          <leafValues>
            -3.0283412337303162e-01 1.7229515314102173e-01</leafValues></_>
        <_>
          <internalNodes>
            0 -1 94 2.8485063463449478e-02</internalNodes>
          <leafValues>
            8.8783279061317444e-02 -5.3722107410430908e-01</leafValues></_>
        <_>
          <internalNodes>
            0 -1 130 3.6223653703927994e-02</internalNodes>
          <leafValues>
            4.5556329190731049e-02 -8.0903053283691406e-01</leafValues></_>
        <_>
          <internalNodes>
            0 -1 26 1.4015157707035542e-02</internalNodes>
          <leafValues>
            -5.6052774190902710e-01 6.5283931791782379e-02</leafValues></_>
        <_>
          <internalNodes>
            0 -1 61 6.5736188553273678e-03</internalNodes>
          <leafValues>
            2.4743178486824036e-01 -1.7524707317352295e-01</leafValues></_>
        <_>
          <internalNodes>
            0 -1 71 1.7485212534666061e-02</internalNodes>
          <leafValues>
            -1.9487747550010681e-01 2.2897271811962128e-01</leafValues></_>
        <_>
          <internalNodes>
            0 -1 9 1.9287144765257835e-02</internalNodes>
          <leafValues>
            -3.6068317294120789e-01 1.1473342776298523e-01</leafValues></_>
        <_>
          <internalNodes>
            0 -1 174 1.3814273476600647e-01</internalNodes>
          <leafValues>
            -8.9530326426029205e-02 4.9703782796859741e-01</leafValues></_>
        <_>
          <internalNodes>
            0 -1 45 2.7573008090257645e-02</internalNodes>
          <leafValues>
            2.2403883934020996e-01 -2.0676308870315552e-01</leafValues></_>
        <_>
          <internalNodes>
            0 -1 142 5.4149165749549866e-02</internalNodes>
          <leafValues>
            4.9731094390153885e-02 -7.4009734392166138e-01</leafValues></_>
        <_>
          <internalNodes>
            0 -1 166 3.8664513267576694e-03</internalNodes>
          <leafValues>
            -5.7313609123229980e-01 5.8904692530632019e-02</leafValues></_>
        <_>
          <internalNodes>
            0 -1 129 3.0280081555247307e-02</internalNodes>
          <leafValues>
            4.5574270188808441e-02 -7.8096860647201538e-01</leafValues></_>
        <_>
          <internalNodes>
            0 -1 126 9.1918860562145710e-04</internalNodes>
          <leafValues>
            -8.1128692626953125e-01 3.6244522780179977e-02</leafValues></_>
        <_>
          <internalNodes>
            0 -1 27 3.9478316903114319e-03</internalNodes>
          <leafValues>
            2.3847357928752899e-01 -1.5250669419765472e-01</leafValues></_>
        <_>
          <internalNodes>
            0 -1 85 2.4339878000319004e-03</internalNodes>
          <leafValues>
            -7.2255343198776245e-01 4.4953409582376480e-02</leafValues></_>
        <_>
          <internalNodes>
            0 -1 165 2.8866659849882126e-02</internalNodes>
          <leafValues>
            -3.6001485586166382e-01 1.0281213372945786e-01</leafValues></_>
        <_>
          <internalNodes>
            0 -1 7 2.0373478531837463e-02</internalNodes>
          <leafValues>
            1.4241129159927368e-01 -2.5085917115211487e-01</leafValues></_>
        <_>
          <internalNodes>
            0 -1 139 1.2040134519338608e-02</internalNodes>
          <leafValues>
            -6.2459611892700195e-01 5.4908759891986847e-02</leafValues></_>
        <_>
          <internalNodes>
            0 -1 131 2.3616960272192955e-02</internalNodes>
          <leafValues>
            7.2675041854381561e-02 -4.3021696805953979e-01</leafValues></_>
        <_>
          <internalNodes>
            0 -1 143 2.5586055591702461e-02</internalNodes>
          <leafValues>
            -1.9373920559883118e-01 2.1619662642478943e-01</leafValues></_>
        <_>
          <internalNodes>
            0 -1 17 1.7149420455098152e-03</internalNodes>
          <leafValues>
            4.0373507142066956e-01 -9.9900260567665100e-02</leafValues></_>
        <_>
          <internalNodes>
            0 -1 102 1.4674440957605839e-02</internalNodes>
          <leafValues>
            -1.8425905704498291e-01 2.1184244751930237e-01</leafValues></_></weakClassifiers></_>
    <!-- stage 4 -->
    <_>
      <maxWeakCount>53</maxWeakCount>
      <stageThreshold>-1.3486572504043579e+00</stageThreshold>
      <weakClassifiers>
        <_>
          <internalNodes>
            0 -1 122 4.8643417656421661e-02</internalNodes>
          <leafValues>
            -6.4014148712158203e-01 5.8085954189300537e-01</leafValues></_>
        <_>
          <internalNodes>
            0 -1 155 6.5451771020889282e-02</internalNodes>
          <leafValues>
            -4.9053111672401428e-01 3.2876181602478027e-01</leafValues></_>
        <_>
          <internalNodes>
            0 -1 8 2.1604387089610100e-02</internalNodes>
          <leafValues>
            -5.6327652931213379e-01 2.1733762323856354e-01</leafValues></_>
        <_>
          <internalNodes>
            0 -1 65 6.5627761185169220e-02</internalNodes>
          <leafValues>
            2.6199102401733398e-01 -4.6103587746620178e-01</leafValues></_>
        <_>
          <internalNodes>
            0 -1 47 4.1624680161476135e-03</internalNodes>
          <leafValues>
            2.6114356517791748e-01 -4.0645417571067810e-01</leafValues></_>
        <_>
          <internalNodes>
            0 -1 171 1.0597866028547287e-02</internalNodes>
          <leafValues>
            -7.7935177087783813e-01 1.1520538479089737e-01</leafValues></_>
        <_>
          <internalNodes>
            0 -1 31 3.8170803338289261e-02</internalNodes>
          <leafValues>
            -2.9429504275321960e-01 2.9538086056709290e-01</leafValues></_>
        <_>
          <internalNodes>
            0 -1 179 2.4437041953206062e-02</internalNodes>
          <leafValues>
            8.7810315191745758e-02 -7.9316210746765137e-01</leafValues></_>
        <_>
          <internalNodes>
            0 -1 118 8.2763396203517914e-03</internalNodes>
          <leafValues>
            -4.5959836244583130e-01 1.4191105961799622e-01</leafValues></_>
        <_>
          <internalNodes>
            0 -1 168 5.2281431853771210e-02</internalNodes>
          <leafValues>
            -5.0710004568099976e-01 1.5847216546535492e-01</leafValues></_>
        <_>
          <internalNodes>
            0 -1 64 8.2685612142086029e-03</internalNodes>
          <leafValues>
            -2.6147112250328064e-01 2.0739172399044037e-01</leafValues></_>
        <_>
          <internalNodes>
            0 -1 54 5.9635713696479797e-03</internalNodes>
          <leafValues>
            2.6947543025016785e-01 -2.2047477960586548e-01</leafValues></_>
        <_>
          <internalNodes>
            0 -1 154 2.0294789224863052e-02</internalNodes>
          <leafValues>
            -7.1877431869506836e-01 8.1740692257881165e-02</leafValues></_>
        <_>
          <internalNodes>
            0 -1 53 8.4954276680946350e-03</internalNodes>
          <leafValues>
            -4.2984294891357422e-01 1.0777995735406876e-01</leafValues></_>
        <_>
          <internalNodes>
            0 -1 160 2.6077395305037498e-02</internalNodes>
          <leafValues>
            -4.9604421854019165e-01 9.5977902412414551e-02</leafValues></_>
        <_>
          <internalNodes>
            0 -1 20 8.0969460308551788e-02</internalNodes>
          <leafValues>
            1.0437266528606415e-01 -4.4000902771949768e-01</leafValues></_>
        <_>
          <internalNodes>
            0 -1 111 1.8055967986583710e-02</internalNodes>
          <leafValues>
            1.1534209549427032e-01 -3.5964342951774597e-01</leafValues></_>
        <_>
          <internalNodes>
            0 -1 73 5.2833743393421173e-02</internalNodes>
          <leafValues>
            8.4783524274826050e-02 -5.8094912767410278e-01</leafValues></_>
        <_>
          <internalNodes>
            0 -1 18 1.9215300679206848e-02</internalNodes>
          <leafValues>
            -7.1947944164276123e-01 5.5978901684284210e-02</leafValues></_>
        <_>
          <internalNodes>
            0 -1 99 1.5778334811329842e-02</internalNodes>
          <leafValues>
            1.3627465069293976e-01 -3.1397762894630432e-01</leafValues></_>
        <_>
          <internalNodes>
            0 -1 136 7.2817201726138592e-03</internalNodes>
          <leafValues>
            -6.5596693754196167e-01 7.2845727205276489e-02</leafValues></_>
        <_>
          <internalNodes>
            0 -1 1 1.3269634544849396e-01</internalNodes>
          <leafValues>
            6.1453480273485184e-02 -6.2820971012115479e-01</leafValues></_>
        <_>
          <internalNodes>
            0 -1 84 5.8938390575349331e-03</internalNodes>
          <leafValues>
            2.0355778932571411e-01 -2.2488915920257568e-01</leafValues></_>
        <_>
          <internalNodes>
            0 -1 70 4.3377103284001350e-03</internalNodes>
          <leafValues>
            2.2674670815467834e-01 -1.6823203861713409e-01</leafValues></_>
        <_>
          <internalNodes>
            0 -1 30 2.3077107965946198e-02</internalNodes>
          <leafValues>
            1.0629376769065857e-01 -3.7012305855751038e-01</leafValues></_>
        <_>
          <internalNodes>
            0 -1 51 3.1462209299206734e-03</internalNodes>
          <leafValues>
            -2.7789771556854248e-01 1.3076154887676239e-01</leafValues></_>
        <_>
          <internalNodes>
            0 -1 100 1.5204246155917645e-02</internalNodes>
          <leafValues>
            -8.3827358484268188e-01 3.9700966328382492e-02</leafValues></_>
        <_>
          <internalNodes>
            0 -1 128 5.5054821074008942e-02</internalNodes>
          <leafValues>
            -8.9662156999111176e-02 4.5276561379432678e-01</leafValues></_>
        <_>
          <internalNodes>
            0 -1 79 3.5431057214736938e-02</internalNodes>
          <leafValues>
            6.3224628567695618e-02 -7.5552511215209961e-01</leafValues></_>
        <_>
          <internalNodes>
            0 -1 117 1.7618961632251740e-02</internalNodes>
          <leafValues>
            8.2094170153141022e-02 -3.9471906423568726e-01</leafValues></_>
        <_>
          <internalNodes>
            0 -1 101 1.3187869451940060e-02</internalNodes>
          <leafValues>
            -2.6459503173828125e-01 1.2366774678230286e-01</leafValues></_>
        <_>
          <internalNodes>
            0 -1 108 7.3059853166341782e-03</internalNodes>
          <leafValues>
            3.3974722027778625e-01 -1.0905576497316360e-01</leafValues></_>
        <_>
          <internalNodes>
            0 -1 74 3.9219945669174194e-02</internalNodes>
          <leafValues>
            -1.1446950584650040e-01 3.3654484152793884e-01</leafValues></_>
        <_>
          <internalNodes>
            0 -1 115 1.0539842769503593e-02</internalNodes>
          <leafValues>
            2.3370948433876038e-01 -1.4416921138763428e-01</leafValues></_>
        <_>
          <internalNodes>
            0 -1 35 5.7663666084408760e-03</internalNodes>
          <leafValues>
            -2.0739312469959259e-01 1.9472745060920715e-01</leafValues></_>
        <_>
          <internalNodes>
            0 -1 38 2.4111120030283928e-02</internalNodes>
          <leafValues>
            7.9934269189834595e-02 -4.1083121299743652e-01</leafValues></_>
        <_>
          <internalNodes>
            0 -1 141 4.4974181801080704e-03</internalNodes>
          <leafValues>
            -5.5194413661956787e-01 5.3030028939247131e-02</leafValues></_>
        <_>
          <internalNodes>
            0 -1 167 3.4329794347286224e-02</internalNodes>
          <leafValues>
            3.9725124835968018e-02 -7.5830662250518799e-01</leafValues></_>
        <_>
          <internalNodes>
            0 -1 7 2.7956707403063774e-02</internalNodes>
          <leafValues>
            9.3929149210453033e-02 -3.3844113349914551e-01</leafValues></_>
        <_>
          <internalNodes>
            0 -1 15 3.2776514999568462e-03</internalNodes>
          <leafValues>
            -3.8619965314865112e-01 8.5052549839019775e-02</leafValues></_>
        <_>
          <internalNodes>
            0 -1 56 1.0527180507779121e-02</internalNodes>
          <leafValues>
            -8.0431652069091797e-01 3.3733710646629333e-02</leafValues></_>
        <_>
          <internalNodes>
            0 -1 57 1.5629516565240920e-04</internalNodes>
          <leafValues>
            -7.5336492061614990e-01 3.2227385789155960e-02</leafValues></_>
        <_>
          <internalNodes>
            0 -1 82 4.9938909709453583e-02</internalNodes>
          <leafValues>
            2.6350963860750198e-02 -8.7165904045104980e-01</leafValues></_>
        <_>
          <internalNodes>
            0 -1 43 1.4834322035312653e-02</internalNodes>
          <leafValues>
            2.5594142079353333e-01 -1.2744988501071930e-01</leafValues></_>
        <_>
          <internalNodes>
            0 -1 55 7.0803044363856316e-03</internalNodes>
          <leafValues>
            -8.0253106355667114e-01 4.1673455387353897e-02</leafValues></_>
        <_>
          <internalNodes>
            0 -1 4 7.9144006595015526e-03</internalNodes>
          <leafValues>
            -3.9870882034301758e-01 7.5618155300617218e-02</leafValues></_>
        <_>
          <internalNodes>
            0 -1 49 2.7599345892667770e-02</internalNodes>
          <leafValues>
            -9.2069610953330994e-02 3.8282805681228638e-01</leafValues></_>
        <_>
          <internalNodes>
            0 -1 34 1.0110218077898026e-02</internalNodes>
          <leafValues>
            1.9579131901264191e-01 -1.8997812271118164e-01</leafValues></_>
        <_>
          <internalNodes>
            0 -1 88 3.9808237925171852e-03</internalNodes>
          <leafValues>
            -3.4746325016021729e-01 9.0508759021759033e-02</leafValues></_>
        <_>
          <internalNodes>
            0 -1 151 1.4549772441387177e-01</internalNodes>
          <leafValues>
            -8.8612765073776245e-02 3.8935697078704834e-01</leafValues></_>
        <_>
          <internalNodes>
            0 -1 66 5.1888011395931244e-02</internalNodes>
          <leafValues>
            1.7664727568626404e-01 -1.9173194468021393e-01</leafValues></_>
        <_>
          <internalNodes>
            0 -1 156 1.0651946067810059e-02</internalNodes>
          <leafValues>
            -4.0529811382293701e-01 8.8245160877704620e-02</leafValues></_>
        <_>
          <internalNodes>
            0 -1 14 1.7539529502391815e-01</internalNodes>
          <leafValues>
            -6.4020268619060516e-02 5.4290139675140381e-01</leafValues></_></weakClassifiers></_>
    <!-- stage 5 -->
    <_>
      <maxWeakCount>58</maxWeakCount>
      <stageThreshold>-5.9474599361419678e-01</stageThreshold>
      <weakClassifiers>
        <_>
          <internalNodes>
            0 -1 116 4.1066147387027740e-02</internalNodes>
          <leafValues>
            -1.4771242439746857e-01 8.6686688661575317e-01</leafValues></_>
        <_>
          <internalNodes>
            0 -1 29 2.8378993272781372e-02</internalNodes>
          <leafValues>
            -2.9844763875007629e-01 4.9019664525985718e-01</leafValues></_>
        <_>
          <internalNodes>
            0 -1 173 6.3480576500296593e-03</internalNodes>
          <leafValues>
            3.1793013215065002e-01 -4.3220070004463196e-01</leafValues></_>
        <_>
          <internalNodes>
            0 -1 50 1.1881474405527115e-02</internalNodes>
          <leafValues>
            -4.6387439966201782e-01 2.2489346563816071e-01</leafValues></_>
        <_>
          <internalNodes>
            0 -1 104 3.8313888013362885e-02</internalNodes>
          <leafValues>
            -4.1130232810974121e-01 2.3555849492549896e-01</leafValues></_>
        <_>
          <internalNodes>
            0 -1 121 1.2706953100860119e-02</internalNodes>
          <leafValues>
            -3.5959863662719727e-01 2.0764619112014771e-01</leafValues></_>
        <_>
          <internalNodes>
            0 -1 60 2.5564506649971008e-02</internalNodes>
          <leafValues>
            -5.0139856338500977e-01 1.4639851450920105e-01</leafValues></_>
        <_>
          <internalNodes>
            0 -1 149 2.2815749049186707e-02</internalNodes>
          <leafValues>
            -4.7600358724594116e-01 1.2850894033908844e-01</leafValues></_>
        <_>
          <internalNodes>
            0 -1 92 3.6986008286476135e-02</internalNodes>
          <leafValues>
            -1.8644304573535919e-01 3.4379240870475769e-01</leafValues></_>
        <_>
          <internalNodes>
            0 -1 124 1.1633491516113281e-01</internalNodes>
          <leafValues>
            -1.7453913390636444e-01 3.1877806782722473e-01</leafValues></_>
        <_>
          <internalNodes>
            0 -1 118 1.4188406057655811e-02</internalNodes>
          <leafValues>
            -3.1553119421005249e-01 2.4148340523242950e-01</leafValues></_>
        <_>
          <internalNodes>
            0 -1 10 2.7203399688005447e-02</internalNodes>
          <leafValues>
            1.4889748394489288e-01 -3.7856212258338928e-01</leafValues></_>
        <_>
          <internalNodes>
            0 -1 28 8.9069493114948273e-03</internalNodes>
          <leafValues>
            -7.7581351995468140e-01 6.5287806093692780e-02</leafValues></_>
        <_>
          <internalNodes>
            0 -1 46 6.4023765735328197e-03</internalNodes>
          <leafValues>
            1.9295339286327362e-01 -2.2539457678794861e-01</leafValues></_>
        <_>
          <internalNodes>
            0 -1 86 7.5797662138938904e-03</internalNodes>
          <leafValues>
            -2.9444614052772522e-01 1.9607338309288025e-01</leafValues></_>
        <_>
          <internalNodes>
            0 -1 132 1.4285480603575706e-02</internalNodes>
          <leafValues>
            -6.7612248659133911e-01 6.9934435188770294e-02</leafValues></_>
        <_>
          <internalNodes>
            0 -1 44 3.9721004664897919e-02</internalNodes>
          <leafValues>
            -1.7648752033710480e-01 2.3287774622440338e-01</leafValues></_>
        <_>
          <internalNodes>
            0 -1 78 7.3315866291522980e-02</internalNodes>
          <leafValues>
            -1.9372862577438354e-01 2.4863585829734802e-01</leafValues></_>
        <_>
          <internalNodes>
            0 -1 6 2.6630599051713943e-02</internalNodes>
          <leafValues>
            -1.3634443283081055e-01 2.8814280033111572e-01</leafValues></_>
        <_>
          <internalNodes>
            0 -1 52 1.0065795481204987e-01</internalNodes>
          <leafValues>
            -9.6323512494564056e-02 3.9449191093444824e-01</leafValues></_>
        <_>
          <internalNodes>
            0 -1 147 3.9260275661945343e-03</internalNodes>
          <leafValues>
            -8.6117416620254517e-01 4.5534271746873856e-02</leafValues></_>
        <_>
          <internalNodes>
            0 -1 42 1.6903858631849289e-02</internalNodes>
          <leafValues>
            2.4162508547306061e-01 -1.8066735565662384e-01</leafValues></_>
        <_>
          <internalNodes>
            0 -1 0 2.0562812685966492e-02</internalNodes>
          <leafValues>
            -1.6728694736957550e-01 2.7430269122123718e-01</leafValues></_>
        <_>
          <internalNodes>
            0 -1 106 4.4611655175685883e-02</internalNodes>
          <leafValues>
            8.6355328559875488e-02 -4.5763427019119263e-01</leafValues></_>
        <_>
          <internalNodes>
            0 -1 107 3.7206097040325403e-03</internalNodes>
          <leafValues>
            4.0134376287460327e-01 -9.9637299776077271e-02</leafValues></_>
        <_>
          <internalNodes>
            0 -1 23 8.0716818571090698e-02</internalNodes>
          <leafValues>
            1.1305806785821915e-01 -4.2513415217399597e-01</leafValues></_>
        <_>
          <internalNodes>
            0 -1 122 8.8451296091079712e-02</internalNodes>
          <leafValues>
            -7.8026391565799713e-02 5.8240735530853271e-01</leafValues></_>
        <_>
          <internalNodes>
            0 -1 150 1.8352041020989418e-02</internalNodes>
          <leafValues>
            1.3527740538120270e-01 -2.7406093478202820e-01</leafValues></_>
        <_>
          <internalNodes>
            0 -1 178 1.5754327178001404e-02</internalNodes>
          <leafValues>
            -1.7854619026184082e-01 2.1422316133975983e-01</leafValues></_>
        <_>
          <internalNodes>
            0 -1 145 1.4830404520034790e-01</internalNodes>
          <leafValues>
            -5.0854980945587158e-02 8.4363776445388794e-01</leafValues></_>
        <_>
          <internalNodes>
            0 -1 21 9.0987067669630051e-03</internalNodes>
          <leafValues>
            1.2533055245876312e-01 -3.0817246437072754e-01</leafValues></_>
        <_>
          <internalNodes>
            0 -1 41 2.5843448936939240e-02</internalNodes>
          <leafValues>
            -1.0093913972377777e-01 4.8402372002601624e-01</leafValues></_>
        <_>
          <internalNodes>
            0 -1 33 8.1974282860755920e-02</internalNodes>
          <leafValues>
            -1.8720054626464844e-01 2.0083308219909668e-01</leafValues></_>
        <_>
          <internalNodes>
            0 -1 62 5.3167082369327545e-02</internalNodes>
          <leafValues>
            8.6170017719268799e-02 -4.6170708537101746e-01</leafValues></_>
        <_>
          <internalNodes>
            0 -1 140 1.1474448256194592e-02</internalNodes>
          <leafValues>
            -2.0611254870891571e-01 1.9065663218498230e-01</leafValues></_>
        <_>
          <internalNodes>
            0 -1 172 3.2093081623315811e-02</internalNodes>
          <leafValues>
            5.8211784809827805e-02 -6.4222729206085205e-01</leafValues></_>
        <_>
          <internalNodes>
            0 -1 24 3.2897725701332092e-02</internalNodes>
          <leafValues>
            -1.1540799587965012e-01 3.3362138271331787e-01</leafValues></_>
        <_>
          <internalNodes>
            0 -1 25 8.0704856663942337e-03</internalNodes>
          <leafValues>
            2.2164057195186615e-01 -1.8522295355796814e-01</leafValues></_>
        <_>
          <internalNodes>
            0 -1 11 1.2477523088455200e-01</internalNodes>
          <leafValues>
            6.2547288835048676e-02 -6.1055570840835571e-01</leafValues></_>
        <_>
          <internalNodes>
            0 -1 103 5.6423027068376541e-02</internalNodes>
          <leafValues>
            5.8789193630218506e-02 -5.8894950151443481e-01</leafValues></_>
        <_>
          <internalNodes>
            0 -1 161 3.3321384340524673e-02</internalNodes>
          <leafValues>
            -3.0370852351188660e-01 1.1238319426774979e-01</leafValues></_>
        <_>
          <internalNodes>
            0 -1 22 8.5160776972770691e-02</internalNodes>
          <leafValues>
            3.6078207194805145e-02 -8.7152224779129028e-01</leafValues></_>
        <_>
          <internalNodes>
            0 -1 80 2.0278561860322952e-02</internalNodes>
          <leafValues>
            -7.5135625898838043e-02 5.0335389375686646e-01</leafValues></_>
        <_>
          <internalNodes>
            0 -1 68 3.8608700037002563e-02</internalNodes>
          <leafValues>
            1.4031183719635010e-01 -2.7779790759086609e-01</leafValues></_>
        <_>
          <internalNodes>
            0 -1 135 4.2484980076551437e-03</internalNodes>
          <leafValues>
            2.8941375017166138e-01 -1.5262790024280548e-01</leafValues></_>
        <_>
          <internalNodes>
            0 -1 180 1.0544312000274658e-01</internalNodes>
          <leafValues>
            6.1543617397546768e-02 -6.4242142438888550e-01</leafValues></_>
        <_>
          <internalNodes>
            0 -1 72 3.7724748253822327e-02</internalNodes>
          <leafValues>
            4.9339205026626587e-02 -6.6104829311370850e-01</leafValues></_>
        <_>
          <internalNodes>
            0 -1 19 6.6288158297538757e-02</internalNodes>
          <leafValues>
            -5.5625084787607193e-02 8.3924543857574463e-01</leafValues></_>
        <_>
          <internalNodes>
            0 -1 87 4.7422379255294800e-02</internalNodes>
          <leafValues>
            5.7672258466482162e-02 -8.4296482801437378e-01</leafValues></_>
        <_>
          <internalNodes>
            0 -1 113 1.6634885687381029e-03</internalNodes>
          <leafValues>
            2.4567137658596039e-01 -1.4476867020130157e-01</leafValues></_>
        <_>
          <internalNodes>
            0 -1 40 6.0591008514165878e-03</internalNodes>
          <leafValues>
            -2.1907939016819000e-01 2.0510259270668030e-01</leafValues></_>
        <_>
          <internalNodes>
            0 -1 93 5.5327080190181732e-02</internalNodes>
          <leafValues>
            2.2089232504367828e-01 -1.6291190683841705e-01</leafValues></_>
        <_>
          <internalNodes>
            0 -1 63 6.0844525694847107e-02</internalNodes>
          <leafValues>
            -2.1550276875495911e-01 1.9154983758926392e-01</leafValues></_>
        <_>
          <internalNodes>
            0 -1 36 2.7652863413095474e-02</internalNodes>
          <leafValues>
            8.8295087218284607e-02 -4.6654191613197327e-01</leafValues></_>
        <_>
          <internalNodes>
            0 -1 48 1.2107659876346588e-01</internalNodes>
          <leafValues>
            -9.7876138985157013e-02 4.3486249446868896e-01</leafValues></_>
        <_>
          <internalNodes>
            0 -1 137 1.1631391942501068e-02</internalNodes>
          <leafValues>
            -4.5763456821441650e-01 9.0875908732414246e-02</leafValues></_>
        <_>
          <internalNodes>
            0 -1 144 6.5861186012625694e-03</internalNodes>
          <leafValues>
            -7.3126649856567383e-01 4.7537140548229218e-02</leafValues></_>
        <_>
          <internalNodes>
            0 -1 158 6.4417454414069653e-03</internalNodes>
          <leafValues>
            3.4487888216972351e-01 -1.1434184014797211e-01</leafValues></_></weakClassifiers></_></stages>
  <features>
    <_>
      <rect>
        0 0 8 8 1</rect></_>
    <_>
      <rect>
        0 0 8 8 4</rect></_>
    <_>
      <rect>
        0 4 8 8 4</rect></_>
    <_>
      <rect>
        0 4 8 8 8</rect></_>
    <_>
      <rect>
        0 4 8 8 26</rect></_>
    <_>
      <rect>
        0 8 8 8 26</rect></_>
    <_>
      <rect>
        0 12 8 8 7</rect></_>
    <_>
      <rect>
        0 12 8 8 21</rect></_>
    <_>
      <rect>
        0 12 8 8 26</rect></_>
    <_>
      <rect>
        4 0 8 8 3</rect></_>
    <_>
      <rect>
        4 0 8 8 8</rect></_>
    <_>
      <rect>
        4 8 8 8 12</rect></_>
    <_>
      <rect>
        4 12 8 8 4</rect></_>
    <_>
      <rect>
        4 12 8 8 12</rect></_>
    <_>
      <rect>
        4 16 8 8 13</rect></_>
    <_>
      <rect>
        4 16 8 8 21</rect></_>
    <_>
      <rect>
        8 0 8 8 3</rect></_>
    <_>
      <rect>
        8 8 8 8 28</rect></_>
    <_>
      <rect>
        12 0 8 8 4</rect></_>
    <_>
      <rect>
        12 4 8 8 2</rect></_>
    <_>
      <rect>
        12 4 8 8 12</rect></_>
    <_>
      <rect>
        16 0 8 8 16</rect></_>
    <_>
      <rect>
        16 4 8 8 35</rect></_>
    <_>
      <rect>
        16 12 8 8 12</rect></_>
    <_>
      <rect>
        16 12 8 8 27</rect></_>
    <_>
      <rect>
        16 16 8 8 32</rect></_>
    <_>
      <rect>
        20 4 8 8 3</rect></_>
    <_>
      <rect>
        20 4 8 8 14</rect></_>
    <_>
      <rect>
        20 4 8 8 30</rect></_>
    <_>
      <rect>
        20 8 8 8 26</rect></_>
    <_>
      <rect>
        20 8 8 8 29</rect></_>
    <_>
      <rect>
        20 8 8 8 35</rect></_>
    <_>
      <rect>
        24 0 8 8 10</rect></_>
    <_>
      <rect>
        24 0 8 8 22</rect></_>
    <_>
      <rect>
        24 0 8 8 32</rect></_>
    <_>
      <rect>
        24 4 8 8 0</rect></_>
    <_>
      <rect>
        24 16 8 8 33</rect></_>
    <_>
      <rect>
        28 0 8 8 4</rect></_>
    <_>
      <rect>
        28 0 8 8 11</rect></_>
    <_>
      <rect>
        28 0 8 8 13</rect></_>
    <_>
      <rect>
        28 4 8 8 9</rect></_>
    <_>
      <rect>
        28 4 8 8 17</rect></_>
    <_>
      <rect>
        28 8 8 8 21</rect></_>
    <_>
      <rect>
        28 12 8 8 22</rect></_>
    <_>
      <rect>
        28 12 8 8 26</rect></_>
    <_>
      <rect>
        28 16 8 8 4</rect></_>
    <_>
      <rect>
        32 0 8 8 2</rect></_>
    <_>
      <rect>
        32 0 8 8 6</rect></_>
    <_>
      <rect>
        32 0 8 8 21</rect></_>
    <_>
      <rect>
        32 4 8 8 10</rect></_>
    <_>
      <rect>
        32 4 8 8 11</rect></_>
    <_>
      <rect>
        32 4 8 8 17</rect></_>
    <_>
      <rect>
        32 4 8 8 21</rect></_>
    <_>
      <rect>
        32 8 8 8 34</rect></_>
    <_>
      <rect>
        32 16 8 8 20</rect></_>
    <_>
      <rect>
        36 0 8 8 3</rect></_>
    <_>
      <rect>
        36 0 8 8 30</rect></_>
    <_>
      <rect>
        40 4 8 8 35</rect></_>
    <_>
      <rect>
        40 16 8 8 8</rect></_>
    <_>
      <rect>
        44 8 8 8 3</rect></_>
    <_>
      <rect>
        44 8 8 8 12</rect></_>
    <_>
      <rect>
        44 8 8 8 14</rect></_>
    <_>
      <rect>
        44 16 8 8 35</rect></_>
    <_>
      <rect>
        48 0 8 8 13</rect></_>
    <_>
      <rect>
        48 4 8 8 9</rect></_>
    <_>
      <rect>
        48 4 8 8 13</rect></_>
    <_>
      <rect>
        48 4 8 8 21</rect></_>
    <_>
      <rect>
        48 8 8 8 3</rect></_>
    <_>
      <rect>
        48 8 8 8 31</rect></_>
    <_>
      <rect>
        48 8 8 8 35</rect></_>
    <_>
      <rect>
        48 16 8 8 33</rect></_>
    <_>
      <rect>
        0 0 8 16 0</rect></_>
    <_>
      <rect>
        0 0 8 16 11</rect></_>
    <_>
      <rect>
        0 0 8 16 21</rect></_>
    <_>
      <rect>
        0 0 8 16 25</rect></_>
    <_>
      <rect>
        0 0 8 16 26</rect></_>
    <_>
      <rect>
        0 0 8 16 35</rect></_>
    <_>
      <rect>
        4 0 8 16 3</rect></_>
    <_>
      <rect>
        8 0 8 16 31</rect></_>
    <_>
      <rect>
        16 0 8 16 11</rect></_>
    <_>
      <rect>
        20 0 8 16 15</rect></_>
    <_>
      <rect>
        24 0 8 16 31</rect></_>
    <_>
      <rect>
        32 0 8 16 18</rect></_>
    <_>
      <rect>
        36 0 8 16 2</rect></_>
    <_>
      <rect>
        36 0 8 16 17</rect></_>
    <_>
      <rect>
        44 0 8 16 25</rect></_>
    <_>
      <rect>
        48 0 8 16 16</rect></_>
    <_>
      <rect>
        48 0 8 16 19</rect></_>
    <_>
      <rect>
        0 0 16 8 0</rect></_>
    <_>
      <rect>
        0 4 16 8 3</rect></_>
    <_>
      <rect>
        0 4 16 8 5</rect></_>
    <_>
      <rect>
        0 4 16 8 7</rect></_>
    <_>
      <rect>
        0 4 16 8 8</rect></_>
    <_>
      <rect>
        0 4 16 8 13</rect></_>
    <_>
      <rect>
        0 8 16 8 2</rect></_>
    <_>
      <rect>
        0 8 16 8 12</rect></_>
    <_>
      <rect>
        0 8 16 8 26</rect></_>
    <_>
      <rect>
        0 12 16 8 20</rect></_>
    <_>
      <rect>
        0 16 16 8 31</rect></_>
    <_>
      <rect>
        0 16 16 8 33</rect></_>
    <_>
      <rect>
        4 0 16 8 30</rect></_>
    <_>
      <rect>
        4 4 16 8 2</rect></_>
    <_>
      <rect>
        4 4 16 8 19</rect></_>
    <_>
      <rect>
        4 8 16 8 21</rect></_>
    <_>
      <rect>
        4 12 16 8 4</rect></_>
    <_>
      <rect>
        4 12 16 8 13</rect></_>
    <_>
      <rect>
        4 12 16 8 17</rect></_>
    <_>
      <rect>
        4 12 16 8 25</rect></_>
    <_>
      <rect>
        4 12 16 8 26</rect></_>
    <_>
      <rect>
        4 12 16 8 35</rect></_>
    <_>
      <rect>
        4 16 16 8 20</rect></_>
    <_>
      <rect>
        4 16 16 8 23</rect></_>
    <_>
      <rect>
        8 0 16 8 15</rect></_>
    <_>
      <rect>
        8 0 16 8 16</rect></_>
    <_>
      <rect>
        8 4 16 8 0</rect></_>
    <_>
      <rect>
        8 8 16 8 11</rect></_>
    <_>
      <rect>
        8 8 16 8 25</rect></_>
    <_>
      <rect>
        12 0 16 8 6</rect></_>
    <_>
      <rect>
        12 4 16 8 1</rect></_>
    <_>
      <rect>
        12 4 16 8 3</rect></_>
    <_>
      <rect>
        12 8 16 8 18</rect></_>
    <_>
      <rect>
        12 8 16 8 19</rect></_>
    <_>
      <rect>
        12 8 16 8 25</rect></_>
    <_>
      <rect>
        16 0 16 8 12</rect></_>
    <_>
      <rect>
        16 0 16 8 22</rect></_>
    <_>
      <rect>
        16 4 16 8 30</rect></_>
    <_>
      <rect>
        16 4 16 8 35</rect></_>
    <_>
      <rect>
        16 8 16 8 25</rect></_>
    <_>
      <rect>
        16 12 16 8 34</rect></_>
    <_>
      <rect>
        16 16 16 8 20</rect></_>
    <_>
      <rect>
        16 16 16 8 23</rect></_>
    <_>
      <rect>
        16 16 16 8 33</rect></_>
    <_>
      <rect>
        20 0 16 8 3</rect></_>
    <_>
      <rect>
        20 0 16 8 12</rect></_>
    <_>
      <rect>
        20 4 16 8 26</rect></_>
    <_>
      <rect>
        20 8 16 8 15</rect></_>
    <_>
      <rect>
        20 12 16 8 27</rect></_>
    <_>
      <rect>
        20 16 16 8 12</rect></_>
    <_>
      <rect>
        24 0 16 8 30</rect></_>
    <_>
      <rect>
        24 4 16 8 30</rect></_>
    <_>
      <rect>
        24 4 16 8 34</rect></_>
    <_>
      <rect>
        24 12 16 8 5</rect></_>
    <_>
      <rect>
        24 12 16 8 17</rect></_>
    <_>
      <rect>
        24 12 16 8 25</rect></_>
    <_>
      <rect>
        24 12 16 8 27</rect></_>
    <_>
      <rect>
        24 12 16 8 31</rect></_>
    <_>
      <rect>
        24 12 16 8 35</rect></_>
    <_>
      <rect>
        24 16 16 8 12</rect></_>
    <_>
      <rect>
        24 16 16 8 19</rect></_>
    <_>
      <rect>
        24 16 16 8 30</rect></_>
    <_>
      <rect>
        24 16 16 8 32</rect></_>
    <_>
      <rect>
        28 0 16 8 31</rect></_>
    <_>
      <rect>
        28 4 16 8 11</rect></_>
    <_>
      <rect>
        28 4 16 8 21</rect></_>
    <_>
      <rect>
        28 8 16 8 3</rect></_>
    <_>
      <rect>
        28 8 16 8 12</rect></_>
    <_>
      <rect>
        28 8 16 8 30</rect></_>
    <_>
      <rect>
        28 12 16 8 3</rect></_>
    <_>
      <rect>
        28 12 16 8 14</rect></_>
    <_>
      <rect>
        28 16 16 8 30</rect></_>
    <_>
      <rect>
        28 16 16 8 31</rect></_>
    <_>
      <rect>
        32 0 16 8 12</rect></_>
    <_>
      <rect>
        32 8 16 8 25</rect></_>
    <_>
      <rect>
        32 8 16 8 35</rect></_>
    <_>
      <rect>
        32 12 16 8 26</rect></_>
    <_>
      <rect>
        32 16 16 8 22</rect></_>
    <_>
      <rect>
        32 16 16 8 29</rect></_>
    <_>
      <rect>
        4 0 16 16 1</rect></_>
    <_>
      <rect>
        4 0 16 16 13</rect></_>
    <_>
      <rect>
        8 0 16 16 4</rect></_>
    <_>
      <rect>
        8 0 16 16 21</rect></_>
    <_>
      <rect>
        12 0 16 16 21</rect></_>
    <_>
      <rect>
        12 0 16 16 23</rect></_>
    <_>
      <rect>
        16 0 16 16 16</rect></_>
    <_>
      <rect>
        16 0 16 16 31</rect></_>
    <_>
      <rect>
        20 0 16 16 14</rect></_>
    <_>
      <rect>
        20 0 16 16 30</rect></_>
    <_>
      <rect>
        28 0 16 16 35</rect></_>
    <_>
      <rect>
        32 0 16 16 28</rect></_>
    <_>
      <rect>
        0 0 32 16 7</rect></_>
    <_>
      <rect>
        0 0 32 16 12</rect></_>
    <_>
      <rect>
        0 0 32 16 35</rect></_></features></cascade>
</opencv_storage>
